genomestart 2
trait 1 0.1 0 0 0 0 0 0 0
node 1 0 1 1
node 2 0 1 1
node 3 0 1 1
node 4 0 1 1
node 5 0 1 1
node 6 0 1 1
node 7 0 0 2
node 8 0 0 2
node 9 0 1 3
node 10 1 0 0
node 11 1 0 0
node 12 1 0 0
node 13 1 0 0
gene 1 9 7 0.0 0 1 0 1
gene 1 9 8 0.0 0 2 0 1
gene 1 1 10 0.0 0 3 0 1
gene 1 2 10 0.0 0 4 0 1
gene 1 3 10 0.0 0 5 0 1
gene 1 4 10 0.0 0 6 0 1
gene 1 5 10 0.0 0 7 0 1
gene 1 6 10 0.0 0 8 0 1
gene 1 1 11 0.0 0 9 0 1
gene 1 2 11 0.0 0 10 0 1
gene 1 3 11 0.0 0 11 0 1
gene 1 4 11 0.0 0 12 0 1
gene 1 5 11 0.0 0 13 0 1
gene 1 6 11 0.0 0 14 0 1
gene 1 1 12 0.0 0 15 0 1
gene 1 2 12 0.0 0 16 0 1
gene 1 3 12 0.0 0 17 0 1
gene 1 4 12 0.0 0 18 0 1
gene 1 5 12 0.0 0 19 0 1
gene 1 6 12 0.0 0 20 0 1
gene 1 1 13 0.0 0 21 0 1
gene 1 2 13 0.0 0 22 0 1
gene 1 3 13 0.0 0 23 0 1
gene 1 4 13 0.0 0 24 0 1
gene 1 5 13 0.0 0 25 0 1
gene 1 6 13 0.0 0 26 0 1
gene 1 10 7 0.0 0 27 0 1
gene 1 10 8 0.0 0 28 0 1
gene 1 11 7 0.0 0 29 0 1
gene 1 11 8 0.0 0 30 0 1
gene 1 12 7 0.0 0 31 0 1
gene 1 12 8 0.0 0 32 0 1
gene 1 13 7 0.0 0 33 0 1
gene 1 13 8 0.0 0 34 0 1
genomeend 2








